[[ 1.15914366 -0.41746787 -1.34859754 ...  0.10634631  0.80397653
   1.06142224]
 [-0.37194995  0.81861603 -0.14479858 ...  0.74958157  0.09465953
   0.22434287]
 [-0.88460125 -1.64132648  1.73907989 ...  0.14515009  1.90001099
  -1.62221664]
 ...
 [ 2.51106672 -1.23007857 -1.60643711 ... -0.55801788  0.79888454
   0.71865224]
 [ 1.75780153  0.57559274 -0.4791638  ...  1.04903008 -0.35147477
   0.25322306]
 [-0.0658918   0.33349939 -0.51177763 ... -0.96442659  0.65151314
   1.53765577]]
[[ 1.13631399e+00  6.82063832e-01 -1.33278383e+00  5.33039763e-01
   1.05513986e+00 -6.25483957e-01 -2.22085319e+00  1.14716419e+00
  -2.16349513e-03 -7.62963341e-01  1.22092765e-01 -6.91335894e-01
   9.90065565e-01 -4.49644084e-01 -2.50325099e-01 -9.72114876e-01
  -1.48979673e+00  7.25324688e-01  1.93896537e+00  2.71348044e-01
   1.57775630e+00  2.52205302e-01 -9.40803407e-01  7.91462545e-02
  -1.70628392e+00]]
[[ 1.93328696  0.41234786  0.73006541 -0.32644948]
 [-1.12043834  0.54842999  1.32413312  0.66639548]
 [ 0.32389267  0.74661294  0.51988587 -0.36642123]
 [ 1.36514077  0.55920397 -0.32679685  0.14534749]
 [ 1.40029273 -0.73983709 -0.49605964 -0.66128062]
 [ 1.68595421  0.29885178 -0.5521972   0.69857115]
 [ 1.08538145  0.63008961  0.77001049 -0.88890665]
 [-1.29942692 -1.95353713  0.48336385 -0.30302749]
 [-1.39706582 -1.70725795 -0.42893133  0.83609958]
 [ 1.08700449  0.67846349 -0.12946421 -0.85187649]
 [ 0.36330419 -0.92812319 -0.99691347  1.93896305]
 [ 1.99439462  0.90544783 -1.15696316  0.01054909]
 [ 0.69423687  1.14718387  0.5293073   1.0925745 ]
 [-0.61422823  1.22151265  0.12560512 -1.2222531 ]
 [ 0.1718851   0.9874116  -2.82400875  1.23513985]
 [ 1.37652309 -1.09421228 -0.68712187 -0.48212649]
 [-0.87072777  2.25623858 -2.50245798  1.05437253]
 [-0.88283661  0.64482164  0.75390395 -1.03321397]
 [ 0.34099253 -0.89157128 -0.81526661 -0.09930263]
 [ 0.16928145 -0.21831247 -0.51228153 -0.47093499]
 [-0.57593824  0.58624603  0.74739322 -0.14548509]
 [ 0.35656343 -0.85822476  2.59629568 -1.50085374]
 [-1.58863103 -1.00813052 -1.60605964  0.64116769]
 [ 0.66803938 -1.78930388  0.77226417 -0.71791871]
 [ 1.62692591  0.20158875 -0.47477951  0.90596385]]
[[-0.94172305 -0.33772153  0.88449916  0.4973412 ]]
